digraph Tree {
node [shape=box] ;
0 [label="Income <= 113.5\ngini = 0.174\nsamples = 5000\nvalue = [4520, 480]"] ;
1 [label="CCAvg <= 2.95\ngini = 0.041\nsamples = 4021\nvalue = [3937, 84]"] ;
0 -> 1 [labeldistance=2.5, labelangle=45, headlabel="True"] ;
2 [label="Income <= 106.5\ngini = 0.007\nsamples = 3723\nvalue = [3710, 13]"] ;
1 -> 2 ;
3 [label="gini = 0.0\nsamples = 3629\nvalue = [3629, 0]"] ;
2 -> 3 ;
4 [label="gini = 0.238\nsamples = 94\nvalue = [81, 13]"] ;
2 -> 4 ;
5 [label="Income <= 82.5\ngini = 0.363\nsamples = 298\nvalue = [227, 71]"] ;
1 -> 5 ;
6 [label="gini = 0.142\nsamples = 117\nvalue = [108, 9]"] ;
5 -> 6 ;
7 [label="gini = 0.45\nsamples = 181\nvalue = [119, 62]"] ;
5 -> 7 ;
8 [label="Education <= 1.5\ngini = 0.482\nsamples = 979\nvalue = [583, 396]"] ;
0 -> 8 [labeldistance=2.5, labelangle=-45, headlabel="False"] ;
9 [label="CCAvg <= 6.633\ngini = 0.194\nsamples = 635\nvalue = [566, 69]"] ;
8 -> 9 ;
10 [label="gini = 0.225\nsamples = 502\nvalue = [437, 65]"] ;
9 -> 10 ;
11 [label="gini = 0.058\nsamples = 133\nvalue = [129, 4]"] ;
9 -> 11 ;
12 [label="Income <= 116.5\ngini = 0.094\nsamples = 344\nvalue = [17, 327]"] ;
8 -> 12 ;
13 [label="gini = 0.491\nsamples = 30\nvalue = [17, 13]"] ;
12 -> 13 ;
14 [label="gini = 0.0\nsamples = 314\nvalue = [0, 314]"] ;
12 -> 14 ;
}